digraph Tree {
node [shape=box] ;
0 [label="X[1] <= 6.188\ngini = 0.5\nsamples = 1000\nvalue = [500, 500]"] ;
1 [label="X[1] <= -6.5393\ngini = 0.4954\nsamples = 907\nvalue = [410, 497]"] ;
0 -> 1 [labeldistance=2.5, labelangle=45, headlabel="True"] ;
2 [label="X[1] <= -7.2812\ngini = 0.0749\nsamples = 77\nvalue = [3, 74]"] ;
1 -> 2 ;
3 [label="gini = 0.0\nsamples = 54\nvalue = [0, 54]"] ;
2 -> 3 ;
4 [label="X[1] <= -7.1798\ngini = 0.2268\nsamples = 23\nvalue = [3, 20]"] ;
2 -> 4 ;
5 [label="X[0] <= -4.319\ngini = 0.4444\nsamples = 3\nvalue = [2, 1]"] ;
4 -> 5 ;
6 [label="gini = 0.0\nsamples = 1\nvalue = [0, 1]"] ;
5 -> 6 ;
7 [label="gini = 0.0\nsamples = 2\nvalue = [2, 0]"] ;
5 -> 7 ;
8 [label="X[0] <= -2.4965\ngini = 0.095\nsamples = 20\nvalue = [1, 19]"] ;
4 -> 8 ;
9 [label="gini = 0.0\nsamples = 14\nvalue = [0, 14]"] ;
8 -> 9 ;
10 [label="X[0] <= -2.0063\ngini = 0.2778\nsamples = 6\nvalue = [1, 5]"] ;
8 -> 10 ;
11 [label="gini = 0.0\nsamples = 1\nvalue = [1, 0]"] ;
10 -> 11 ;
12 [label="gini = 0.0\nsamples = 5\nvalue = [0, 5]"] ;
10 -> 12 ;
13 [label="X[1] <= 3.5739\ngini = 0.4998\nsamples = 830\nvalue = [407, 423]"] ;
1 -> 13 ;
14 [label="X[0] <= -0.8445\ngini = 0.4955\nsamples = 705\nvalue = [386, 319]"] ;
13 -> 14 ;
15 [label="X[0] <= -3.9196\ngini = 0.4491\nsamples = 329\nvalue = [217, 112]"] ;
14 -> 15 ;
16 [label="X[0] <= -7.5258\ngini = 0.4997\nsamples = 156\nvalue = [80, 76]"] ;
15 -> 16 ;
17 [label="X[1] <= -4.045\ngini = 0.1298\nsamples = 43\nvalue = [40, 3]"] ;
16 -> 17 ;
18 [label="gini = 0.0\nsamples = 3\nvalue = [0, 3]"] ;
17 -> 18 ;
19 [label="gini = 0.0\nsamples = 40\nvalue = [40, 0]"] ;
17 -> 19 ;
20 [label="X[1] <= 1.4263\ngini = 0.4574\nsamples = 113\nvalue = [40, 73]"] ;
16 -> 20 ;
21 [label="X[0] <= -6.8983\ngini = 0.3076\nsamples = 79\nvalue = [15, 64]"] ;
20 -> 21 ;
22 [label="X[1] <= -4.3703\ngini = 0.497\nsamples = 13\nvalue = [7, 6]"] ;
21 -> 22 ;
23 [label="gini = 0.0\nsamples = 6\nvalue = [0, 6]"] ;
22 -> 23 ;
24 [label="gini = 0.0\nsamples = 7\nvalue = [7, 0]"] ;
22 -> 24 ;
25 [label="X[0] <= -4.3234\ngini = 0.213\nsamples = 66\nvalue = [8, 58]"] ;
21 -> 25 ;
26 [label="X[0] <= -6.5142\ngini = 0.1576\nsamples = 58\nvalue = [5, 53]"] ;
25 -> 26 ;
27 [label="X[0] <= -6.6084\ngini = 0.375\nsamples = 8\nvalue = [2, 6]"] ;
26 -> 27 ;
28 [label="X[0] <= -6.7252\ngini = 0.2449\nsamples = 7\nvalue = [1, 6]"] ;
27 -> 28 ;
29 [label="gini = 0.0\nsamples = 4\nvalue = [0, 4]"] ;
28 -> 29 ;
30 [label="X[0] <= -6.7217\ngini = 0.4444\nsamples = 3\nvalue = [1, 2]"] ;
28 -> 30 ;
31 [label="gini = 0.0\nsamples = 1\nvalue = [1, 0]"] ;
30 -> 31 ;
32 [label="gini = 0.0\nsamples = 2\nvalue = [0, 2]"] ;
30 -> 32 ;
33 [label="gini = 0.0\nsamples = 1\nvalue = [1, 0]"] ;
27 -> 33 ;
34 [label="X[0] <= -5.1966\ngini = 0.1128\nsamples = 50\nvalue = [3, 47]"] ;
26 -> 34 ;
35 [label="X[0] <= -6.1907\ngini = 0.0526\nsamples = 37\nvalue = [1, 36]"] ;
34 -> 35 ;
36 [label="X[0] <= -6.1984\ngini = 0.18\nsamples = 10\nvalue = [1, 9]"] ;
35 -> 36 ;
37 [label="gini = 0.0\nsamples = 9\nvalue = [0, 9]"] ;
36 -> 37 ;
38 [label="gini = 0.0\nsamples = 1\nvalue = [1, 0]"] ;
36 -> 38 ;
39 [label="gini = 0.0\nsamples = 27\nvalue = [0, 27]"] ;
35 -> 39 ;
40 [label="X[0] <= -5.1699\ngini = 0.2604\nsamples = 13\nvalue = [2, 11]"] ;
34 -> 40 ;
41 [label="gini = 0.0\nsamples = 1\nvalue = [1, 0]"] ;
40 -> 41 ;
42 [label="X[1] <= 0.9273\ngini = 0.1528\nsamples = 12\nvalue = [1, 11]"] ;
40 -> 42 ;
43 [label="gini = 0.0\nsamples = 10\nvalue = [0, 10]"] ;
42 -> 43 ;
44 [label="X[0] <= -4.7686\ngini = 0.5\nsamples = 2\nvalue = [1, 1]"] ;
42 -> 44 ;
45 [label="gini = 0.0\nsamples = 1\nvalue = [1, 0]"] ;
44 -> 45 ;
46 [label="gini = 0.0\nsamples = 1\nvalue = [0, 1]"] ;
44 -> 46 ;
47 [label="X[1] <= -0.3642\ngini = 0.4688\nsamples = 8\nvalue = [3, 5]"] ;
25 -> 47 ;
48 [label="gini = 0.0\nsamples = 2\nvalue = [2, 0]"] ;
47 -> 48 ;
49 [label="X[0] <= -4.198\ngini = 0.2778\nsamples = 6\nvalue = [1, 5]"] ;
47 -> 49 ;
50 [label="gini = 0.0\nsamples = 1\nvalue = [1, 0]"] ;
49 -> 50 ;
51 [label="gini = 0.0\nsamples = 5\nvalue = [0, 5]"] ;
49 -> 51 ;
52 [label="X[0] <= -5.8719\ngini = 0.3893\nsamples = 34\nvalue = [25, 9]"] ;
20 -> 52 ;
53 [label="gini = 0.0\nsamples = 3\nvalue = [0, 3]"] ;
52 -> 53 ;
54 [label="X[0] <= -4.8569\ngini = 0.3122\nsamples = 31\nvalue = [25, 6]"] ;
52 -> 54 ;
55 [label="X[1] <= 2.5742\ngini = 0.4444\nsamples = 15\nvalue = [10, 5]"] ;
54 -> 55 ;
56 [label="X[0] <= -5.5798\ngini = 0.4688\nsamples = 8\nvalue = [3, 5]"] ;
55 -> 56 ;
57 [label="gini = 0.0\nsamples = 3\nvalue = [3, 0]"] ;
56 -> 57 ;
58 [label="gini = 0.0\nsamples = 5\nvalue = [0, 5]"] ;
56 -> 58 ;
59 [label="gini = 0.0\nsamples = 7\nvalue = [7, 0]"] ;
55 -> 59 ;
60 [label="X[1] <= 3.0386\ngini = 0.1172\nsamples = 16\nvalue = [15, 1]"] ;
54 -> 60 ;
61 [label="gini = 0.0\nsamples = 11\nvalue = [11, 0]"] ;
60 -> 61 ;
62 [label="X[0] <= -4.3449\ngini = 0.32\nsamples = 5\nvalue = [4, 1]"] ;
60 -> 62 ;
63 [label="gini = 0.0\nsamples = 4\nvalue = [4, 0]"] ;
62 -> 63 ;
64 [label="gini = 0.0\nsamples = 1\nvalue = [0, 1]"] ;
62 -> 64 ;
65 [label="X[1] <= 2.7414\ngini = 0.3296\nsamples = 173\nvalue = [137, 36]"] ;
15 -> 65 ;
66 [label="X[1] <= -2.9756\ngini = 0.2449\nsamples = 154\nvalue = [132, 22]"] ;
65 -> 66 ;
67 [label="X[1] <= -3.4702\ngini = 0.0494\nsamples = 79\nvalue = [77, 2]"] ;
66 -> 67 ;
68 [label="X[0] <= -1.4731\ngini = 0.0282\nsamples = 70\nvalue = [69, 1]"] ;
67 -> 68 ;
69 [label="gini = 0.0\nsamples = 61\nvalue = [61, 0]"] ;
68 -> 69 ;
70 [label="X[0] <= -1.4574\ngini = 0.1975\nsamples = 9\nvalue = [8, 1]"] ;
68 -> 70 ;
71 [label="gini = 0.0\nsamples = 1\nvalue = [0, 1]"] ;
70 -> 71 ;
72 [label="gini = 0.0\nsamples = 8\nvalue = [8, 0]"] ;
70 -> 72 ;
73 [label="X[1] <= -3.4535\ngini = 0.1975\nsamples = 9\nvalue = [8, 1]"] ;
67 -> 73 ;
74 [label="gini = 0.0\nsamples = 1\nvalue = [0, 1]"] ;
73 -> 74 ;
75 [label="gini = 0.0\nsamples = 8\nvalue = [8, 0]"] ;
73 -> 75 ;
76 [label="X[1] <= -2.3878\ngini = 0.3911\nsamples = 75\nvalue = [55, 20]"] ;
66 -> 76 ;
77 [label="X[0] <= -0.931\ngini = 0.2975\nsamples = 11\nvalue = [2, 9]"] ;
76 -> 77 ;
78 [label="X[1] <= -2.4953\ngini = 0.18\nsamples = 10\nvalue = [1, 9]"] ;
77 -> 78 ;
79 [label="gini = 0.0\nsamples = 5\nvalue = [0, 5]"] ;
78 -> 79 ;
80 [label="X[1] <= -2.4498\ngini = 0.32\nsamples = 5\nvalue = [1, 4]"] ;
78 -> 80 ;
81 [label="gini = 0.0\nsamples = 1\nvalue = [1, 0]"] ;
80 -> 81 ;
82 [label="gini = 0.0\nsamples = 4\nvalue = [0, 4]"] ;
80 -> 82 ;
83 [label="gini = 0.0\nsamples = 1\nvalue = [1, 0]"] ;
77 -> 83 ;
84 [label="X[1] <= 2.4531\ngini = 0.2847\nsamples = 64\nvalue = [53, 11]"] ;
76 -> 84 ;
85 [label="X[1] <= 0.4961\ngini = 0.2585\nsamples = 59\nvalue = [50, 9]"] ;
84 -> 85 ;
86 [label="X[1] <= 0.4516\ngini = 0.3457\nsamples = 36\nvalue = [28, 8]"] ;
85 -> 86 ;
87 [label="X[0] <= -1.4943\ngini = 0.32\nsamples = 35\nvalue = [28, 7]"] ;
86 -> 87 ;
88 [label="X[1] <= -0.183\ngini = 0.2268\nsamples = 23\nvalue = [20, 3]"] ;
87 -> 88 ;
89 [label="X[0] <= -2.9643\ngini = 0.18\nsamples = 20\nvalue = [18, 2]"] ;
88 -> 89 ;
90 [label="X[1] <= -0.8518\ngini = 0.5\nsamples = 2\nvalue = [1, 1]"] ;
89 -> 90 ;
91 [label="gini = 0.0\nsamples = 1\nvalue = [0, 1]"] ;
90 -> 91 ;
92 [label="gini = 0.0\nsamples = 1\nvalue = [1, 0]"] ;
90 -> 92 ;
93 [label="X[1] <= -1.8903\ngini = 0.1049\nsamples = 18\nvalue = [17, 1]"] ;
89 -> 93 ;
94 [label="X[1] <= -1.9537\ngini = 0.375\nsamples = 4\nvalue = [3, 1]"] ;
93 -> 94 ;
95 [label="gini = 0.0\nsamples = 3\nvalue = [3, 0]"] ;
94 -> 95 ;
96 [label="gini = 0.0\nsamples = 1\nvalue = [0, 1]"] ;
94 -> 96 ;
97 [label="gini = 0.0\nsamples = 14\nvalue = [14, 0]"] ;
93 -> 97 ;
98 [label="X[1] <= -0.0293\ngini = 0.4444\nsamples = 3\nvalue = [2, 1]"] ;
88 -> 98 ;
99 [label="gini = 0.0\nsamples = 1\nvalue = [0, 1]"] ;
98 -> 99 ;
100 [label="gini = 0.0\nsamples = 2\nvalue = [2, 0]"] ;
98 -> 100 ;
101 [label="X[1] <= -1.6047\ngini = 0.4444\nsamples = 12\nvalue = [8, 4]"] ;
87 -> 101 ;
102 [label="gini = 0.0\nsamples = 5\nvalue = [5, 0]"] ;
101 -> 102 ;
103 [label="X[1] <= -0.5709\ngini = 0.4898\nsamples = 7\nvalue = [3, 4]"] ;
101 -> 103 ;
104 [label="gini = 0.0\nsamples = 4\nvalue = [0, 4]"] ;
103 -> 104 ;
105 [label="gini = 0.0\nsamples = 3\nvalue = [3, 0]"] ;
103 -> 105 ;
106 [label="gini = 0.0\nsamples = 1\nvalue = [0, 1]"] ;
86 -> 106 ;
107 [label="X[0] <= -3.2569\ngini = 0.0832\nsamples = 23\nvalue = [22, 1]"] ;
85 -> 107 ;
108 [label="X[0] <= -3.3009\ngini = 0.2778\nsamples = 6\nvalue = [5, 1]"] ;
107 -> 108 ;
109 [label="gini = 0.0\nsamples = 5\nvalue = [5, 0]"] ;
108 -> 109 ;
110 [label="gini = 0.0\nsamples = 1\nvalue = [0, 1]"] ;
108 -> 110 ;
111 [label="gini = 0.0\nsamples = 17\nvalue = [17, 0]"] ;
107 -> 111 ;
112 [label="X[0] <= -1.9242\ngini = 0.48\nsamples = 5\nvalue = [3, 2]"] ;
84 -> 112 ;
113 [label="X[0] <= -2.9124\ngini = 0.4444\nsamples = 3\nvalue = [1, 2]"] ;
112 -> 113 ;
114 [label="gini = 0.0\nsamples = 1\nvalue = [1, 0]"] ;
113 -> 114 ;
115 [label="gini = 0.0\nsamples = 2\nvalue = [0, 2]"] ;
113 -> 115 ;
116 [label="gini = 0.0\nsamples = 2\nvalue = [2, 0]"] ;
112 -> 116 ;
117 [label="X[0] <= -2.8558\ngini = 0.3878\nsamples = 19\nvalue = [5, 14]"] ;
65 -> 117 ;
118 [label="X[1] <= 2.8691\ngini = 0.4959\nsamples = 11\nvalue = [5, 6]"] ;
117 -> 118 ;
119 [label="gini = 0.0\nsamples = 2\nvalue = [0, 2]"] ;
118 -> 119 ;
120 [label="X[1] <= 2.9122\ngini = 0.4938\nsamples = 9\nvalue = [5, 4]"] ;
118 -> 120 ;
121 [label="gini = 0.0\nsamples = 1\nvalue = [1, 0]"] ;
120 -> 121 ;
122 [label="X[0] <= -3.896\ngini = 0.5\nsamples = 8\nvalue = [4, 4]"] ;
120 -> 122 ;
123 [label="gini = 0.0\nsamples = 1\nvalue = [1, 0]"] ;
122 -> 123 ;
124 [label="X[0] <= -3.6866\ngini = 0.4898\nsamples = 7\nvalue = [3, 4]"] ;
122 -> 124 ;
125 [label="gini = 0.0\nsamples = 2\nvalue = [0, 2]"] ;
124 -> 125 ;
126 [label="X[1] <= 3.0839\ngini = 0.48\nsamples = 5\nvalue = [3, 2]"] ;
124 -> 126 ;
127 [label="gini = 0.0\nsamples = 1\nvalue = [0, 1]"] ;
126 -> 127 ;
128 [label="X[1] <= 3.356\ngini = 0.375\nsamples = 4\nvalue = [3, 1]"] ;
126 -> 128 ;
129 [label="gini = 0.0\nsamples = 2\nvalue = [2, 0]"] ;
128 -> 129 ;
130 [label="X[1] <= 3.4584\ngini = 0.5\nsamples = 2\nvalue = [1, 1]"] ;
128 -> 130 ;
131 [label="gini = 0.0\nsamples = 1\nvalue = [0, 1]"] ;
130 -> 131 ;
132 [label="gini = 0.0\nsamples = 1\nvalue = [1, 0]"] ;
130 -> 132 ;
133 [label="gini = 0.0\nsamples = 8\nvalue = [0, 8]"] ;
117 -> 133 ;
134 [label="X[0] <= 3.2184\ngini = 0.4949\nsamples = 376\nvalue = [169, 207]"] ;
14 -> 134 ;
135 [label="X[0] <= 0.1244\ngini = 0.3324\nsamples = 133\nvalue = [28, 105]"] ;
134 -> 135 ;
136 [label="X[1] <= -2.9212\ngini = 0.4879\nsamples = 45\nvalue = [19, 26]"] ;
135 -> 136 ;
137 [label="X[1] <= -3.5862\ngini = 0.2604\nsamples = 13\nvalue = [11, 2]"] ;
136 -> 137 ;
138 [label="gini = 0.0\nsamples = 8\nvalue = [8, 0]"] ;
137 -> 138 ;
139 [label="X[1] <= -3.3128\ngini = 0.48\nsamples = 5\nvalue = [3, 2]"] ;
137 -> 139 ;
140 [label="gini = 0.0\nsamples = 2\nvalue = [0, 2]"] ;
139 -> 140 ;
141 [label="gini = 0.0\nsamples = 3\nvalue = [3, 0]"] ;
139 -> 141 ;
142 [label="X[0] <= 0.071\ngini = 0.375\nsamples = 32\nvalue = [8, 24]"] ;
136 -> 142 ;
143 [label="X[0] <= -0.3411\ngini = 0.32\nsamples = 30\nvalue = [6, 24]"] ;
142 -> 143 ;
144 [label="X[1] <= -0.5677\ngini = 0.4444\nsamples = 15\nvalue = [5, 10]"] ;
143 -> 144 ;
145 [label="X[0] <= -0.4052\ngini = 0.32\nsamples = 10\nvalue = [2, 8]"] ;
144 -> 145 ;
146 [label="gini = 0.0\nsamples = 7\nvalue = [0, 7]"] ;
145 -> 146 ;
147 [label="X[1] <= -2.3274\ngini = 0.4444\nsamples = 3\nvalue = [2, 1]"] ;
145 -> 147 ;
148 [label="gini = 0.0\nsamples = 1\nvalue = [0, 1]"] ;
147 -> 148 ;
149 [label="gini = 0.0\nsamples = 2\nvalue = [2, 0]"] ;
147 -> 149 ;
150 [label="X[1] <= 0.6481\ngini = 0.48\nsamples = 5\nvalue = [3, 2]"] ;
144 -> 150 ;
151 [label="gini = 0.0\nsamples = 2\nvalue = [2, 0]"] ;
150 -> 151 ;
152 [label="X[0] <= -0.5442\ngini = 0.4444\nsamples = 3\nvalue = [1, 2]"] ;
150 -> 152 ;
153 [label="gini = 0.0\nsamples = 2\nvalue = [0, 2]"] ;
152 -> 153 ;
154 [label="gini = 0.0\nsamples = 1\nvalue = [1, 0]"] ;
152 -> 154 ;
155 [label="X[1] <= -0.4093\ngini = 0.1244\nsamples = 15\nvalue = [1, 14]"] ;
143 -> 155 ;
156 [label="gini = 0.0\nsamples = 8\nvalue = [0, 8]"] ;
155 -> 156 ;
157 [label="X[1] <= -0.2023\ngini = 0.2449\nsamples = 7\nvalue = [1, 6]"] ;
155 -> 157 ;
158 [label="gini = 0.0\nsamples = 1\nvalue = [1, 0]"] ;
157 -> 158 ;
159 [label="gini = 0.0\nsamples = 6\nvalue = [0, 6]"] ;
157 -> 159 ;
160 [label="gini = 0.0\nsamples = 2\nvalue = [2, 0]"] ;
142 -> 160 ;
161 [label="X[1] <= 2.3407\ngini = 0.1836\nsamples = 88\nvalue = [9, 79]"] ;
135 -> 161 ;
162 [label="X[0] <= 2.7522\ngini = 0.1495\nsamples = 86\nvalue = [7, 79]"] ;
161 -> 162 ;
163 [label="X[1] <= -4.648\ngini = 0.0596\nsamples = 65\nvalue = [2, 63]"] ;
162 -> 163 ;
164 [label="X[0] <= 1.4399\ngini = 0.5\nsamples = 2\nvalue = [1, 1]"] ;
163 -> 164 ;
165 [label="gini = 0.0\nsamples = 1\nvalue = [1, 0]"] ;
164 -> 165 ;
166 [label="gini = 0.0\nsamples = 1\nvalue = [0, 1]"] ;
164 -> 166 ;
167 [label="X[0] <= 0.5002\ngini = 0.0312\nsamples = 63\nvalue = [1, 62]"] ;
163 -> 167 ;
168 [label="X[0] <= 0.4393\ngini = 0.1049\nsamples = 18\nvalue = [1, 17]"] ;
167 -> 168 ;
169 [label="gini = 0.0\nsamples = 17\nvalue = [0, 17]"] ;
168 -> 169 ;
170 [label="gini = 0.0\nsamples = 1\nvalue = [1, 0]"] ;
168 -> 170 ;
171 [label="gini = 0.0\nsamples = 45\nvalue = [0, 45]"] ;
167 -> 171 ;
172 [label="X[0] <= 3.0247\ngini = 0.3628\nsamples = 21\nvalue = [5, 16]"] ;
162 -> 172 ;
173 [label="X[0] <= 2.7843\ngini = 0.5\nsamples = 10\nvalue = [5, 5]"] ;
172 -> 173 ;
174 [label="gini = 0.0\nsamples = 2\nvalue = [2, 0]"] ;
173 -> 174 ;
175 [label="X[0] <= 2.9483\ngini = 0.4688\nsamples = 8\nvalue = [3, 5]"] ;
173 -> 175 ;
176 [label="X[0] <= 2.8883\ngini = 0.2778\nsamples = 6\nvalue = [1, 5]"] ;
175 -> 176 ;
177 [label="gini = 0.0\nsamples = 3\nvalue = [0, 3]"] ;
176 -> 177 ;
178 [label="X[0] <= 2.9148\ngini = 0.4444\nsamples = 3\nvalue = [1, 2]"] ;
176 -> 178 ;
179 [label="gini = 0.0\nsamples = 1\nvalue = [1, 0]"] ;
178 -> 179 ;
180 [label="gini = 0.0\nsamples = 2\nvalue = [0, 2]"] ;
178 -> 180 ;
181 [label="gini = 0.0\nsamples = 2\nvalue = [2, 0]"] ;
175 -> 181 ;
182 [label="gini = 0.0\nsamples = 11\nvalue = [0, 11]"] ;
172 -> 182 ;
183 [label="gini = 0.0\nsamples = 2\nvalue = [2, 0]"] ;
161 -> 183 ;
184 [label="X[1] <= -0.6956\ngini = 0.4871\nsamples = 243\nvalue = [141, 102]"] ;
134 -> 184 ;
185 [label="X[1] <= -2.2456\ngini = 0.4819\nsamples = 126\nvalue = [51, 75]"] ;
184 -> 185 ;
186 [label="X[1] <= -5.2846\ngini = 0.4999\nsamples = 87\nvalue = [44, 43]"] ;
185 -> 186 ;
187 [label="X[0] <= 4.787\ngini = 0.1975\nsamples = 9\nvalue = [1, 8]"] ;
186 -> 187 ;
188 [label="gini = 0.0\nsamples = 5\nvalue = [0, 5]"] ;
187 -> 188 ;
189 [label="X[0] <= 5.0411\ngini = 0.375\nsamples = 4\nvalue = [1, 3]"] ;
187 -> 189 ;
190 [label="gini = 0.0\nsamples = 1\nvalue = [1, 0]"] ;
189 -> 190 ;
191 [label="gini = 0.0\nsamples = 3\nvalue = [0, 3]"] ;
189 -> 191 ;
192 [label="X[1] <= -5.1146\ngini = 0.4947\nsamples = 78\nvalue = [43, 35]"] ;
186 -> 192 ;
193 [label="gini = 0.0\nsamples = 4\nvalue = [4, 0]"] ;
192 -> 193 ;
194 [label="X[1] <= -4.28\ngini = 0.4985\nsamples = 74\nvalue = [39, 35]"] ;
192 -> 194 ;
195 [label="X[0] <= 4.3298\ngini = 0.4082\nsamples = 14\nvalue = [4, 10]"] ;
194 -> 195 ;
196 [label="gini = 0.0\nsamples = 5\nvalue = [0, 5]"] ;
195 -> 196 ;
197 [label="X[1] <= -4.9518\ngini = 0.4938\nsamples = 9\nvalue = [4, 5]"] ;
195 -> 197 ;
198 [label="gini = 0.0\nsamples = 3\nvalue = [0, 3]"] ;
197 -> 198 ;
199 [label="X[0] <= 5.4725\ngini = 0.4444\nsamples = 6\nvalue = [4, 2]"] ;
197 -> 199 ;
200 [label="X[0] <= 4.5518\ngini = 0.32\nsamples = 5\nvalue = [4, 1]"] ;
199 -> 200 ;
201 [label="X[0] <= 4.3773\ngini = 0.5\nsamples = 2\nvalue = [1, 1]"] ;
200 -> 201 ;
202 [label="gini = 0.0\nsamples = 1\nvalue = [1, 0]"] ;
201 -> 202 ;
203 [label="gini = 0.0\nsamples = 1\nvalue = [0, 1]"] ;
201 -> 203 ;
204 [label="gini = 0.0\nsamples = 3\nvalue = [3, 0]"] ;
200 -> 204 ;
205 [label="gini = 0.0\nsamples = 1\nvalue = [0, 1]"] ;
199 -> 205 ;
206 [label="X[0] <= 4.0579\ngini = 0.4861\nsamples = 60\nvalue = [35, 25]"] ;
194 -> 206 ;
207 [label="X[1] <= -3.276\ngini = 0.4844\nsamples = 17\nvalue = [7, 10]"] ;
206 -> 207 ;
208 [label="X[0] <= 4.0117\ngini = 0.4688\nsamples = 8\nvalue = [5, 3]"] ;
207 -> 208 ;
209 [label="X[1] <= -3.7028\ngini = 0.4082\nsamples = 7\nvalue = [5, 2]"] ;
208 -> 209 ;
210 [label="X[0] <= 3.5292\ngini = 0.5\nsamples = 4\nvalue = [2, 2]"] ;
209 -> 210 ;
211 [label="gini = 0.0\nsamples = 1\nvalue = [1, 0]"] ;
210 -> 211 ;
212 [label="X[1] <= -4.0645\ngini = 0.4444\nsamples = 3\nvalue = [1, 2]"] ;
210 -> 212 ;
213 [label="gini = 0.0\nsamples = 1\nvalue = [0, 1]"] ;
212 -> 213 ;
214 [label="X[0] <= 3.6896\ngini = 0.5\nsamples = 2\nvalue = [1, 1]"] ;
212 -> 214 ;
215 [label="gini = 0.0\nsamples = 1\nvalue = [0, 1]"] ;
214 -> 215 ;
216 [label="gini = 0.0\nsamples = 1\nvalue = [1, 0]"] ;
214 -> 216 ;
217 [label="gini = 0.0\nsamples = 3\nvalue = [3, 0]"] ;
209 -> 217 ;
218 [label="gini = 0.0\nsamples = 1\nvalue = [0, 1]"] ;
208 -> 218 ;
219 [label="X[0] <= 4.0294\ngini = 0.3457\nsamples = 9\nvalue = [2, 7]"] ;
207 -> 219 ;
220 [label="X[0] <= 3.7627\ngini = 0.2188\nsamples = 8\nvalue = [1, 7]"] ;
219 -> 220 ;
221 [label="gini = 0.0\nsamples = 5\nvalue = [0, 5]"] ;
220 -> 221 ;
222 [label="X[0] <= 3.8887\ngini = 0.4444\nsamples = 3\nvalue = [1, 2]"] ;
220 -> 222 ;
223 [label="gini = 0.0\nsamples = 1\nvalue = [1, 0]"] ;
222 -> 223 ;
224 [label="gini = 0.0\nsamples = 2\nvalue = [0, 2]"] ;
222 -> 224 ;
225 [label="gini = 0.0\nsamples = 1\nvalue = [1, 0]"] ;
219 -> 225 ;
226 [label="X[0] <= 4.6223\ngini = 0.4543\nsamples = 43\nvalue = [28, 15]"] ;
206 -> 226 ;
227 [label="X[1] <= -3.0603\ngini = 0.1975\nsamples = 9\nvalue = [8, 1]"] ;
226 -> 227 ;
228 [label="X[0] <= 4.1899\ngini = 0.375\nsamples = 4\nvalue = [3, 1]"] ;
227 -> 228 ;
229 [label="gini = 0.0\nsamples = 1\nvalue = [0, 1]"] ;
228 -> 229 ;
230 [label="gini = 0.0\nsamples = 3\nvalue = [3, 0]"] ;
228 -> 230 ;
231 [label="gini = 0.0\nsamples = 5\nvalue = [5, 0]"] ;
227 -> 231 ;
232 [label="X[0] <= 4.7499\ngini = 0.4844\nsamples = 34\nvalue = [20, 14]"] ;
226 -> 232 ;
233 [label="gini = 0.0\nsamples = 3\nvalue = [0, 3]"] ;
232 -> 233 ;
234 [label="X[1] <= -3.0023\ngini = 0.4579\nsamples = 31\nvalue = [20, 11]"] ;
232 -> 234 ;
235 [label="X[1] <= -3.4361\ngini = 0.4032\nsamples = 25\nvalue = [18, 7]"] ;
234 -> 235 ;
236 [label="X[1] <= -3.483\ngini = 0.4898\nsamples = 14\nvalue = [8, 6]"] ;
235 -> 236 ;
237 [label="X[0] <= 5.8958\ngini = 0.4444\nsamples = 12\nvalue = [8, 4]"] ;
236 -> 237 ;
238 [label="X[0] <= 4.8866\ngini = 0.3457\nsamples = 9\nvalue = [7, 2]"] ;
237 -> 238 ;
239 [label="gini = 0.0\nsamples = 3\nvalue = [3, 0]"] ;
238 -> 239 ;
240 [label="X[0] <= 5.3221\ngini = 0.4444\nsamples = 6\nvalue = [4, 2]"] ;
238 -> 240 ;
241 [label="X[0] <= 4.9607\ngini = 0.4444\nsamples = 3\nvalue = [1, 2]"] ;
240 -> 241 ;
242 [label="gini = 0.0\nsamples = 1\nvalue = [0, 1]"] ;
241 -> 242 ;
243 [label="X[0] <= 4.9996\ngini = 0.5\nsamples = 2\nvalue = [1, 1]"] ;
241 -> 243 ;
244 [label="gini = 0.0\nsamples = 1\nvalue = [1, 0]"] ;
243 -> 244 ;
245 [label="gini = 0.0\nsamples = 1\nvalue = [0, 1]"] ;
243 -> 245 ;
246 [label="gini = 0.0\nsamples = 3\nvalue = [3, 0]"] ;
240 -> 246 ;
247 [label="X[0] <= 6.4191\ngini = 0.4444\nsamples = 3\nvalue = [1, 2]"] ;
237 -> 247 ;
248 [label="gini = 0.0\nsamples = 2\nvalue = [0, 2]"] ;
247 -> 248 ;
249 [label="gini = 0.0\nsamples = 1\nvalue = [1, 0]"] ;
247 -> 249 ;
250 [label="gini = 0.0\nsamples = 2\nvalue = [0, 2]"] ;
236 -> 250 ;
251 [label="X[1] <= -3.2109\ngini = 0.1653\nsamples = 11\nvalue = [10, 1]"] ;
235 -> 251 ;
252 [label="gini = 0.0\nsamples = 7\nvalue = [7, 0]"] ;
251 -> 252 ;
253 [label="X[1] <= -3.2062\ngini = 0.375\nsamples = 4\nvalue = [3, 1]"] ;
251 -> 253 ;
254 [label="gini = 0.0\nsamples = 1\nvalue = [0, 1]"] ;
253 -> 254 ;
255 [label="gini = 0.0\nsamples = 3\nvalue = [3, 0]"] ;
253 -> 255 ;
256 [label="X[0] <= 5.7152\ngini = 0.4444\nsamples = 6\nvalue = [2, 4]"] ;
234 -> 256 ;
257 [label="gini = 0.0\nsamples = 4\nvalue = [0, 4]"] ;
256 -> 257 ;
258 [label="gini = 0.0\nsamples = 2\nvalue = [2, 0]"] ;
256 -> 258 ;
259 [label="X[0] <= 6.6871\ngini = 0.2945\nsamples = 39\nvalue = [7, 32]"] ;
185 -> 259 ;
260 [label="X[0] <= 4.1114\ngini = 0.1567\nsamples = 35\nvalue = [3, 32]"] ;
259 -> 260 ;
261 [label="X[0] <= 3.8779\ngini = 0.42\nsamples = 10\nvalue = [3, 7]"] ;
260 -> 261 ;
262 [label="gini = 0.0\nsamples = 6\nvalue = [0, 6]"] ;
261 -> 262 ;
263 [label="X[1] <= -2.1632\ngini = 0.375\nsamples = 4\nvalue = [3, 1]"] ;
261 -> 263 ;
264 [label="gini = 0.0\nsamples = 1\nvalue = [0, 1]"] ;
263 -> 264 ;
265 [label="gini = 0.0\nsamples = 3\nvalue = [3, 0]"] ;
263 -> 265 ;
266 [label="gini = 0.0\nsamples = 25\nvalue = [0, 25]"] ;
260 -> 266 ;
267 [label="gini = 0.0\nsamples = 4\nvalue = [4, 0]"] ;
259 -> 267 ;
268 [label="X[1] <= 2.5745\ngini = 0.355\nsamples = 117\nvalue = [90, 27]"] ;
184 -> 268 ;
269 [label="X[0] <= 10.5587\ngini = 0.1855\nsamples = 87\nvalue = [78, 9]"] ;
268 -> 269 ;
270 [label="X[1] <= 2.2858\ngini = 0.1528\nsamples = 84\nvalue = [77, 7]"] ;
269 -> 270 ;
271 [label="X[0] <= 4.4396\ngini = 0.1229\nsamples = 76\nvalue = [71, 5]"] ;
270 -> 271 ;
272 [label="X[0] <= 4.1034\ngini = 0.32\nsamples = 15\nvalue = [12, 3]"] ;
271 -> 272 ;
273 [label="gini = 0.0\nsamples = 11\nvalue = [11, 0]"] ;
272 -> 273 ;
274 [label="X[1] <= 1.5151\ngini = 0.375\nsamples = 4\nvalue = [1, 3]"] ;
272 -> 274 ;
275 [label="gini = 0.0\nsamples = 3\nvalue = [0, 3]"] ;
274 -> 275 ;
276 [label="gini = 0.0\nsamples = 1\nvalue = [1, 0]"] ;
274 -> 276 ;
277 [label="X[1] <= 2.019\ngini = 0.0634\nsamples = 61\nvalue = [59, 2]"] ;
271 -> 277 ;
278 [label="X[1] <= 1.2445\ngini = 0.0339\nsamples = 58\nvalue = [57, 1]"] ;
277 -> 278 ;
279 [label="gini = 0.0\nsamples = 44\nvalue = [44, 0]"] ;
278 -> 279 ;
280 [label="X[1] <= 1.2661\ngini = 0.1327\nsamples = 14\nvalue = [13, 1]"] ;
278 -> 280 ;
281 [label="gini = 0.0\nsamples = 1\nvalue = [0, 1]"] ;
280 -> 281 ;
282 [label="gini = 0.0\nsamples = 13\nvalue = [13, 0]"] ;
280 -> 282 ;
283 [label="X[1] <= 2.0606\ngini = 0.4444\nsamples = 3\nvalue = [2, 1]"] ;
277 -> 283 ;
284 [label="gini = 0.0\nsamples = 1\nvalue = [0, 1]"] ;
283 -> 284 ;
285 [label="gini = 0.0\nsamples = 2\nvalue = [2, 0]"] ;
283 -> 285 ;
286 [label="X[0] <= 6.6638\ngini = 0.375\nsamples = 8\nvalue = [6, 2]"] ;
270 -> 286 ;
287 [label="gini = 0.0\nsamples = 6\nvalue = [6, 0]"] ;
286 -> 287 ;
288 [label="gini = 0.0\nsamples = 2\nvalue = [0, 2]"] ;
286 -> 288 ;
289 [label="X[1] <= 1.435\ngini = 0.4444\nsamples = 3\nvalue = [1, 2]"] ;
269 -> 289 ;
290 [label="gini = 0.0\nsamples = 1\nvalue = [1, 0]"] ;
289 -> 290 ;
291 [label="gini = 0.0\nsamples = 2\nvalue = [0, 2]"] ;
289 -> 291 ;
292 [label="X[0] <= 7.0093\ngini = 0.48\nsamples = 30\nvalue = [12, 18]"] ;
268 -> 292 ;
293 [label="gini = 0.0\nsamples = 12\nvalue = [12, 0]"] ;
292 -> 293 ;
294 [label="gini = 0.0\nsamples = 18\nvalue = [0, 18]"] ;
292 -> 294 ;
295 [label="X[0] <= 7.0064\ngini = 0.2796\nsamples = 125\nvalue = [21, 104]"] ;
13 -> 295 ;
296 [label="X[0] <= 1.2886\ngini = 0.3343\nsamples = 99\nvalue = [21, 78]"] ;
295 -> 296 ;
297 [label="X[1] <= 4.392\ngini = 0.2166\nsamples = 89\nvalue = [11, 78]"] ;
296 -> 297 ;
298 [label="X[0] <= -2.931\ngini = 0.4281\nsamples = 29\nvalue = [9, 20]"] ;
297 -> 298 ;
299 [label="X[1] <= 3.7531\ngini = 0.5\nsamples = 16\nvalue = [8, 8]"] ;
298 -> 299 ;
300 [label="X[1] <= 3.6514\ngini = 0.375\nsamples = 4\nvalue = [1, 3]"] ;
299 -> 300 ;
301 [label="gini = 0.0\nsamples = 1\nvalue = [1, 0]"] ;
300 -> 301 ;
302 [label="gini = 0.0\nsamples = 3\nvalue = [0, 3]"] ;
300 -> 302 ;
303 [label="X[1] <= 4.1853\ngini = 0.4861\nsamples = 12\nvalue = [7, 5]"] ;
299 -> 303 ;
304 [label="X[0] <= -3.895\ngini = 0.32\nsamples = 5\nvalue = [4, 1]"] ;
303 -> 304 ;
305 [label="X[0] <= -4.1726\ngini = 0.5\nsamples = 2\nvalue = [1, 1]"] ;
304 -> 305 ;
306 [label="gini = 0.0\nsamples = 1\nvalue = [1, 0]"] ;
305 -> 306 ;
307 [label="gini = 0.0\nsamples = 1\nvalue = [0, 1]"] ;
305 -> 307 ;
308 [label="gini = 0.0\nsamples = 3\nvalue = [3, 0]"] ;
304 -> 308 ;
309 [label="X[1] <= 4.2973\ngini = 0.4898\nsamples = 7\nvalue = [3, 4]"] ;
303 -> 309 ;
310 [label="gini = 0.0\nsamples = 3\nvalue = [0, 3]"] ;
309 -> 310 ;
311 [label="X[0] <= -3.0851\ngini = 0.375\nsamples = 4\nvalue = [3, 1]"] ;
309 -> 311 ;
312 [label="gini = 0.0\nsamples = 3\nvalue = [3, 0]"] ;
311 -> 312 ;
313 [label="gini = 0.0\nsamples = 1\nvalue = [0, 1]"] ;
311 -> 313 ;
314 [label="X[1] <= 4.2538\ngini = 0.142\nsamples = 13\nvalue = [1, 12]"] ;
298 -> 314 ;
315 [label="gini = 0.0\nsamples = 11\nvalue = [0, 11]"] ;
314 -> 315 ;
316 [label="X[1] <= 4.3043\ngini = 0.5\nsamples = 2\nvalue = [1, 1]"] ;
314 -> 316 ;
317 [label="gini = 0.0\nsamples = 1\nvalue = [1, 0]"] ;
316 -> 317 ;
318 [label="gini = 0.0\nsamples = 1\nvalue = [0, 1]"] ;
316 -> 318 ;
319 [label="X[0] <= -0.5258\ngini = 0.0644\nsamples = 60\nvalue = [2, 58]"] ;
297 -> 319 ;
320 [label="X[1] <= 6.0941\ngini = 0.0339\nsamples = 58\nvalue = [1, 57]"] ;
319 -> 320 ;
321 [label="gini = 0.0\nsamples = 55\nvalue = [0, 55]"] ;
320 -> 321 ;
322 [label="X[1] <= 6.1408\ngini = 0.4444\nsamples = 3\nvalue = [1, 2]"] ;
320 -> 322 ;
323 [label="gini = 0.0\nsamples = 1\nvalue = [1, 0]"] ;
322 -> 323 ;
324 [label="gini = 0.0\nsamples = 2\nvalue = [0, 2]"] ;
322 -> 324 ;
325 [label="X[0] <= -0.091\ngini = 0.5\nsamples = 2\nvalue = [1, 1]"] ;
319 -> 325 ;
326 [label="gini = 0.0\nsamples = 1\nvalue = [1, 0]"] ;
325 -> 326 ;
327 [label="gini = 0.0\nsamples = 1\nvalue = [0, 1]"] ;
325 -> 327 ;
328 [label="gini = 0.0\nsamples = 10\nvalue = [10, 0]"] ;
296 -> 328 ;
329 [label="gini = 0.0\nsamples = 26\nvalue = [0, 26]"] ;
295 -> 329 ;
330 [label="X[0] <= -3.2081\ngini = 0.0624\nsamples = 93\nvalue = [90, 3]"] ;
0 -> 330 [labeldistance=2.5, labelangle=-45, headlabel="False"] ;
331 [label="X[0] <= -3.7154\ngini = 0.4444\nsamples = 3\nvalue = [1, 2]"] ;
330 -> 331 ;
332 [label="gini = 0.0\nsamples = 1\nvalue = [1, 0]"] ;
331 -> 332 ;
333 [label="gini = 0.0\nsamples = 2\nvalue = [0, 2]"] ;
331 -> 333 ;
334 [label="X[1] <= 6.6562\ngini = 0.022\nsamples = 90\nvalue = [89, 1]"] ;
330 -> 334 ;
335 [label="X[1] <= 6.6092\ngini = 0.18\nsamples = 10\nvalue = [9, 1]"] ;
334 -> 335 ;
336 [label="gini = 0.0\nsamples = 9\nvalue = [9, 0]"] ;
335 -> 336 ;
337 [label="gini = 0.0\nsamples = 1\nvalue = [0, 1]"] ;
335 -> 337 ;
338 [label="gini = 0.0\nsamples = 80\nvalue = [80, 0]"] ;
334 -> 338 ;
}